{"W1":[[-0.8728602322368325,-0.2829517721632806,0.6386565326482587,-0.9399572080026479,-3.1129868982615636,-1.8793367494292819,5.862755802812154,9.296972700622861],[4.710358919042843,0.09398251599084657,1.8642903266542263,-4.7660529411245935,0.751234167694644,2.217968295342069,-3.359623528858613,-1.302817050159413],[1.219149138805855,-1.031222179233451,1.5043396972933532,-0.8537484799521466,-1.758506519689186,1.6445200504290547,-2.4990439985913655,0.32131461514769616],[-1.3729585103133006,2.1087976487460685,0.3908987093027654,-4.471164178803889,1.7768344023029894,-1.276657596286088,-4.111152721450756,3.12049650753863],[-0.3392270304869801,-2.065992599602379,2.170687590998349,-5.800021046468261,1.8054680094251132,-0.5435676515258712,2.179322178557549,5.446129399910088],[1.9647692289708,-0.9507480320955144,1.4959648904688596,-2.8656929559531643,-1.2400503313504694,1.265076103264819,-0.7785206904694952,1.8561809639273512],[-0.4572761848628935,-0.31796864104901,-0.07783961400954915,1.059334358285639,-0.3502173717448083,-0.44020206473236934,0.5232008279650369,-0.34622436408942525],[-1.7844646900087076,1.318717926790043,-0.43477380939301924,6.107139144878263,-3.7248290234342836,-1.7632831524715182,-2.1431195914398145,-2.8061713079827215],[-3.054331895072325,-0.11666079823788535,-1.880299772451528,4.368586476644153,-0.3822837987041519,-2.242911003829712,0.35790554304105504,2.8556059986623747],[0.17988506464674056,-0.188746002372059,0.01615294771607535,-0.042259423649625316,-0.18726234079441273,-0.2582890481876029,-0.251829850175158,-0.15596436079165238],[0.7105885122031703,0.5765803295274307,-0.3561331054065009,-0.8150694592169028,-0.6422971207150641,-0.30085620452275,-1.1227929359687192,-1.1221927869959194],[-0.2015631420625196,-0.2057971377414799,0.07176887889041476,0.0018097193055508888,0.07411292106095514,0.026826850690715682,0.11990760483686495,0.18876418624293545]],"b1":[-1.934477353840701,-1.114389777119754,1.1210226397860823,1.9752626486703861,-0.0023502595962858475,-1.6411866737117835,-0.7291269126989774,2.210155206061452,-3.881600304347505,0.01,0.10529068327356784,-0.10587677883106407],"W2":[[-0.05758061174691502,-0.17657053173624013,-0.03111230135894427,-0.27373933116417537,0.24816194183193113,-0.07301350220469102,0.003127953238964217,-0.1334799193661186,-0.3528917778393827,-0.017004021310610157,-0.11323811203144889,0.24196753384321806],[-0.23401997127444166,-0.23590902551620974,-0.25760538642735165,0.00027982387228780515,-0.2853850067104905,-0.06576375299594277,-0.22023205272711013,-0.2831476971460638,-0.27829241620462186,-0.21010981497968778,-0.23124066194323822,0.14748413007878064],[-3.4482051056501932,-0.6347888340295039,-0.6766411393882962,-0.42766640187561844,-0.6345842537657455,-0.2664708299442124,-0.1664160418559159,1.4918989904785867,-0.542958386170949,0.2560826622155359,-0.49013128174222703,-0.2058074245072701],[-0.20564245840624296,-0.03316860305017245,-0.10513599699071013,-0.11719165791458055,-0.02511346013427987,-0.2769868375658754,-0.18135107147575183,-0.03770206031834245,-0.3146070134527962,0.15947179139591103,-0.13289541262326726,-0.0007298981012259965],[2.7261272278033637,-0.2560796107682961,-2.945694957415108,-3.683654524611975,-0.41791675617395524,-0.41096097017132943,0.31189324340312685,2.5493994002872027,1.0542110139797771,0.172811604933694,0.08474556907973235,-0.00235091731390589],[-1.0252546185429274,2.4572072242602236,0.4388946107164038,-0.4315122356935143,-0.20078137142631255,1.4780386080480004,-0.004056395595959308,-2.346576588213095,-0.3814858113633968,-0.1835272681745305,0.1717398951392984,-0.15555900099407333],[-2.8278120388939922,-1.818044548556569,0.617173235185681,0.5973915734302768,3.7588280139506702,-2.0030544492448694,-0.916338039621344,2.80614933137838,-2.851944247110144,0.2274977774096434,0.14383458315737954,0.0956860639019597],[0.06148258171492738,-3.2368357309157636,1.052753890460138,-0.9874962609627946,3.1185004177890083,-1.6068373193569812,-0.11633696236501609,1.0000888821398852,-0.9269629362556661,0.18138977082887786,-1.612845936234224,-0.2525908790886875]],"b2":[-0.3046773375668131,-0.003858147090087371,2.404904141864025,-0.004554336871423507,-2.1242170087790906,0.45799012246263193,-1.3730719155041948,2.472346434812551],"W3":[[0.314089219104321,-0.2995406454909121,-2.1177132340173705,-0.16785206199721975,1.0837946542617507,1.9860160869622245,-0.8016481448707449,-1.6003067134840105],[-0.022640977024108427,0.14833662021206656,-1.3646010479733013,-0.07238806564698758,-3.2621656475115097,-0.8492385615500484,2.6141566817204374,1.3875792338426864],[-0.35861586871666334,-0.29678073307701075,3.388859915436731,-0.32073311980455427,1.775893284515715,-0.5435161012570532,-2.3148514054068112,-0.03322014912706054]],"b3":[3.112157749598345,-0.44821905220607167,-2.6339386973916223]}