{"W1":[[-0.18260361758146965,0.3135267990910681,-0.3221589937707514,0.655121046833813,0.26350657634024727,-0.1188156234617474,0.6222535547859767,-2.193485991880601],[-0.5357987786864792,0.43425485691209326,-0.20441039660507437,-0.6346856078106036,-0.37044848793986346,-0.5027028741553735,-0.3903749622542838,1.2508649705164414],[0.9118817541220546,-0.5479535052372575,0.5563143567507565,-1.31878427815287,-0.4214677471417148,0.9296283388567309,-0.425219267886093,0.774702881011218],[1.1774235590995603,-0.8103273358557809,0.8174766969953998,-1.9468930808252238,-0.7307665664724954,1.2902701089555737,-0.20606603321445027,0.9633483431410653],[-1.1641180893851175,-0.006777674870902132,-0.32182952223127703,1.6928827716630044,-0.5483482617687055,-1.2911767171881972,-0.29308278700543317,4.353187520404204],[-0.27367175281458245,-0.30513302018672256,-0.11815055600660704,1.5397536474756952,-0.48574262145244235,-0.3324398393793363,-0.16872891008620386,-0.687809666620808],[0.020760258660490527,-0.02522759627024942,-0.21037207413267872,-1.021822949793791,-0.05150022776714171,-0.3551060706833009,0.5125530460972642,1.0540393039050606],[0.03832661834303321,0.26254465543713223,0.048043148074034196,0.20367382874308457,-0.404061338715055,-0.19774159485224455,0.004747028987935127,0.043284606274526315],[0.5824934669708768,0.255073412815471,0.5660835273151366,-1.4065455701373266,-0.10318892888127423,0.5918972179686178,-1.220534245417473,-0.31189124741854796],[-1.6328500911355774,-0.2389318752203575,-0.3968818303748045,2.4515272248497624,-0.4113240973350943,-1.9099577128619076,-0.19043077953452406,6.294116694210061],[2.125477390396921,0.5700899908219211,0.8914094677131089,-3.0913917920378147,0.40282724482127313,1.1210183808062966,-2.6575995719836483,2.973691726789267],[-0.36240980386544686,-0.28862859122573453,-0.10200032721529075,0.5438488722274394,0.03583855164942958,0.3915300398978728,-0.055667810011006784,0.09296796898402672]],"b1":[0.26575209690401064,0.09747608851764324,-0.5983382323685609,-0.7529711351478806,-0.04436039998900119,0.34977132400504996,0.011833407593466393,-0.13324872998075749,0.31494769840126613,-0.14167957607682793,0.6174897215259333,-0.048261486882314734],"W2":[[-0.09860275088493935,-0.30917274264990324,0.07000891736246315,0.2547862609138255,-0.12442976754209918,0.34735547775876674,-0.20952411877865504,0.0593578759208979,0.17711371764236167,0.3804146550974044,-0.31539808916411743,0.01269734771503511],[-1.3976183476057595,0.46944668901541686,0.22690367927721472,0.9081602924909389,0.7980362406117556,-0.06402908030022775,0.201579412103126,0.4442032994336811,0.7731423855226264,0.9495411014334163,2.633150452603912,0.1426878954219238],[-0.7141546193363507,0.7631887896475673,-1.0421560802137344,-1.0094011346797698,0.8138147077936977,0.8845554914287435,0.781052613573728,0.16225626322848877,-0.31245058143124144,0.6445196979195584,-0.3030176587953304,0.17038227829613722],[0.6112724976133705,-0.22592042042709892,-0.06438307232204334,0.12108903606821621,-0.19896975523010554,0.11240514641828442,-0.03848056089699677,-0.01036916178040463,-0.16285804571182666,-0.180198725256694,-0.2428231865424858,-0.060942093615564304],[-1.0776876886745927,0.597352482652728,-0.9973930651841906,-1.5219608755594174,0.6373457710022146,0.8068860849683575,0.7509478293966096,0.06481249319203518,-0.8869139201381335,0.9967940832306096,-0.23946094818014146,0.4668663518390758],[-0.11630074058744892,-0.13840492983481378,-0.029914878808554517,-0.21697456991922615,-0.04050127153764393,0.14080660582070664,-0.007931081716330847,-0.20524605422158493,0.10369822392570574,-0.12392441993262678,-0.3009057877817252,0.2740754618965964],[0.021037350462835946,-0.09475676792802379,0.23103495216694248,0.286481486113727,1.278323940531903,0.09847019367994869,-0.23533754951762823,0.22439801356177178,-0.6686710059036597,2.0572538371250157,-1.9853790213782052,-0.2522530988149222],[-0.04808004141976857,-0.10052181669967111,0.0635738818497082,0.1283418742684436,1.2069960584090518,-0.00392824431506091,0.04661652489974721,-0.07000042458129699,-0.2823179676764958,1.6351377533583995,-1.683713686432937,-0.03068664419448369]],"b2":[0.034051613801861794,-0.3556859793473322,1.261598691048529,0.23771159971870162,1.6530977150129285,0.01,-0.7000117594430767,-0.47003768538437246],"W3":[[-0.14368012248436482,2.596398113528547,-2.4735028147077074,-0.0192602215590333,-3.0508053752754134,0.3197125733695364,-0.033010235890960866,-0.8190091571686556],[-0.3987638861559574,1.0106422941900082,0.9204870766301726,0.22042638148832866,1.1841324606647385,-0.19392065026684835,-1.3467910368609084,-1.0446753539747542],[0.10878428657068698,-3.2134300108684926,1.5853673684293845,-0.7204685723756363,2.067910754413896,-0.27266205766568025,1.4916488701482882,1.3665645650044462]],"b3":[-1.2896517086790171,3.040978590529552,-1.7213268818502998]}